<?xml version="1.0" encoding="ISO-8859-1"?>
<!-- This network was created in GeNIe Academic, which can be used for educational and research purposes only -->
<smile version="1.0" id="Network2" numsamples="10000" discsamples="10000">
	<nodes>
		<cpt id="incidence_nolag">
			<state id="incidencerate1" />
			<state id="incidencerate2" />
			<probabilities>0.476191 0.523809</probabilities>
		</cpt>
		<cpt id="occ2">
			<state id="Employee" />
			<state id="Officer" />
			<state id="Student" />
			<state id="Other" />
			<probabilities>0.304167 0.217705 0.232936 0.2451919999999999</probabilities>
		</cpt>
		<cpt id="age">
			<state id="a15_20" />
			<state id="a21_55" />
			<state id="a56_80" />
			<probabilities>0.176471 0.722689 0.10084</probabilities>
		</cpt>
		<cpt id="UD2">
			<state id="Yes" />
			<state id="No" />
			<probabilities>0.312833 0.687167</probabilities>
		</cpt>
		<cpt id="feverdays">
			<state id="d1_3" />
			<state id="d3_5" />
			<state id="d5_14" />
			<probabilities>0.210084 0.428571 0.361345</probabilities>
		</cpt>
		<cpt id="den_outcome">
			<state id="s1" />
			<state id="s0" />
			<parents>occ2 UD2 age feverdays incidence_nolag</parents>
			<probabilities>0.5 0.5 0.5 0.5 0.5 0.5 0.5 0.5 0.5 0.5 0.5 0.5 9.9998e-06 0.9999900002 4.99995e-06 0.99999500005 0.666666 0.333334 0.373028 0.626972 3.33331e-06 0.99999666669 0.666666 0.333334 0.5 0.5 0.5 0.5 0.99999 9.99999999995449e-06 7.44388e-06 0.9999925561200002 2.91222e-05 0.9999708778 7.4997e-06 0.9999925003 0.5 0.5 0.5 0.5 0.5 0.5 0.999997 2.999999999975245e-06 0.5 0.5 0.999997 2.999999999975245e-06 0.666666 0.333334 0.5 0.5 0.693191 0.306809 0.503013 0.496987 0.320692 0.679308 0.60769 0.39231 0.5 0.5 0.5 0.5 0.5 0.5 0.5 0.5 9.9998e-06 0.9999900002 0.99999 9.99999999995449e-06 0.5 0.5 0.5 0.5 0.5 0.5 0.5 0.5 0.5 0.5 0.5 0.5 0.333334 0.666666 0.6365420000000001 0.363458 0.5 0.5 0.679885 0.320115 0.333334 0.6666659999999999 4.99995e-06 0.99999500005 3.33331e-06 0.99999666669 9.9998e-06 0.9999900002 3.33331e-06 0.99999666669 8.0271e-06 0.9999919729 8.02708e-06 0.9999919729200001 4.19083e-05 0.9999580917000001 0.5 0.5 0.5 0.5 0.5 0.5 0.5 0.5 0.5 0.5 0.999956 4.4000000000044e-05 0.333334 0.666666 3.49889e-06 0.99999650111 0.268635 0.731365 0.670899 0.329101 0.207071 0.792929 0.528763 0.471237 0.5 0.5 9.9998e-06 0.9999900002 0.5 0.5 0.5 0.5 0.5 0.5 0.5 0.5 0.5 0.5 0.99999 9.99999999995449e-06 0.999997 2.999999999975245e-06 0.749999 0.250001 0.5 0.5 0.5 0.5 4.99995e-06 0.99999500005 0.5 0.5 0.5 0.5 0.999993 6.999999999979245e-06 3.33331e-06 0.99999666669 4.99995e-06 0.99999500005 0.5 0.5 0.5 0.5 0.5 0.5 3.80277e-05 0.9999619722999999 3.80274e-05 0.9999619726 3.91681e-05 0.9999608319 0.444445 0.555555 0.5 0.5 0.5 0.5 0.833333 0.166667 0.5 0.5 0.807578 0.192422 2.49999e-06 0.99999750001 0.166668 0.8333319999999999 0.999987 1.300000000004076e-05 0.999994 5.999999999950489e-06 0.999996 4.000000000004e-06 0.371797 0.6282030000000001 0.5 0.5 0.5 0.5 0.5 0.5 0.5 0.5 0.5 0.5 0.5 0.5 0.5 0.5 0.5 0.5 0.5 0.5 0.5 0.5 0.5 0.5 0.5 0.5 0.5 0.5 9.9998e-06 0.9999900002000001 0.428572 0.571428 0.419997 0.580003 3.33331e-06 0.99999666669 0.333334 0.6666659999999999 7.61699e-06 0.99999238301 0.5 0.5 0.5 0.5 0.465565 0.534435 0.465565 0.534435 0.35718 0.6428199999999999 0.5 0.5 0.5 0.5 0.5 0.5 0.5 0.5 0.99999 9.99999999995449e-06 0.999961 3.900000000001125e-05 1.66666e-06 0.9999983333399999 0.5 0.5 0.494624 0.505376 0.291447 0.708553 0.530201 0.469799 0.346416 0.6535840000000001 1.45521e-05 0.9999854479 0.5 0.5 0.5 0.5 0.99999 9.99999999995449e-06 0.5 0.5 1.29261e-05 0.9999870739</probabilities>
		</cpt>
		<cpt id="NS1">
			<state id="Positive" />
			<state id="Negative" />
			<parents>den_outcome feverdays</parents>
			<probabilities>0.545455 0.454545 0.651163 0.348837 0.283019 0.716981 1.88679e-07 0.9999998113210001 1.49254e-07 0.999999850746 0.0263159 0.9736841000000001</probabilities>
		</cpt>
		<cpt id="wbc_d0">
			<state id="r0_35" />
			<state id="r35_45" />
			<state id="r45_73" />
			<state id="r73_260" />
			<parents>den_outcome feverdays</parents>
			<probabilities>0.227273 0.363636 0.272727 0.1363639999999999 0.66279 0.127907 0.162791 0.04651200000000002 0.490566 0.07547180000000001 0.264151 0.1698111999999999 1.88679e-07 0.0566039 0.283019 0.660376911321 0.119403 0.134328 0.283582 0.462687 0.105263 0.131579 0.342105 0.421053</probabilities>
		</cpt>
		<cpt id="plt">
			<state id="r0_106" />
			<state id="r106_178" />
			<state id="r178_590" />
			<parents>den_outcome feverdays</parents>
			<probabilities>0.136364 0.363636 0.5 0.604651 0.325581 0.0697675 0.528302 0.301887 0.169811 0.0188681 0.245283 0.735849 0.119403 0.313433 0.567164 0.25 0.157895 0.592105</probabilities>
		</cpt>
		<cpt id="lymp_d0">
			<state id="r0_17" />
			<state id="r17_61" />
			<parents>den_outcome feverdays</parents>
			<probabilities>0.590909 0.409091 0.313953 0.6860470000000001 0.226415 0.773585 0.622642 0.377358 0.537314 0.462686 0.315789 0.684211</probabilities>
		</cpt>
		<cpt id="hct_d0">
			<state id="r0_328" />
			<state id="r328_560" />
			<parents>den_outcome feverdays</parents>
			<probabilities>0.045455 0.954545 0.0348838 0.9651161999999999 0.0566039 0.9433961 0.0566039 0.9433961 0.164179 0.835821 0.171053 0.828947</probabilities>
		</cpt>
		<cpt id="atypl_d0">
			<state id="r0_1" />
			<state id="r1_5" />
			<state id="r5_45" />
			<parents>den_outcome feverdays</parents>
			<probabilities>0.055556 0.7777770000000001 0.1666669999999999 0.131579 0.421053 0.447368 0.117647 0.215686 0.6666669999999999 0.7249997499999998 0.275 2.5e-07 0.418182 0.454545 0.127273 0.202899 0.478261 0.3188400000000001</probabilities>
		</cpt>
		<cpt id="AST_ALT">
			<state id="r1_13" />
			<state id="r13_45" />
			<parents>den_outcome feverdays</parents>
			<probabilities>0.5 0.5 0.337209 0.662791 0.45283 0.5471699999999999 0.584906 0.415094 0.656716 0.343284 0.671053 0.328947</probabilities>
		</cpt>
		<cpt id="tourniquettest">
			<state id="s1" />
			<state id="s0" />
			<parents>den_outcome feverdays</parents>
			<probabilities>0.333333 0.666667 0.455882 0.544118 0.487805 0.512195 0.170213 0.8297870000000001 0.383333 0.6166670000000001 0.157895 0.8421049999999999</probabilities>
		</cpt>
		<cpt id="nausea">
			<state id="Yes" />
			<state id="No" />
			<parents>den_outcome</parents>
			<probabilities>0.627329 0.372671 0.454082 0.545918</probabilities>
		</cpt>
		<cpt id="bleeding">
			<state id="Yes" />
			<state id="No" />
			<parents>den_outcome feverdays</parents>
			<probabilities>0.045455 0.954545 0.151163 0.8488370000000001 0.188679 0.811321 0.037736 0.962264 0.074627 0.925373 0.105263 0.894737</probabilities>
		</cpt>
		<cpt id="petechiae">
			<state id="s1" />
			<state id="s0" />
			<parents>den_outcome feverdays</parents>
			<probabilities>0.190477 0.809523 0.141177 0.858823 0.188679 0.811321 1.92308e-07 0.999999807692 0.0454547 0.9545453 0.0400001 0.9599999</probabilities>
		</cpt>
		<cpt id="myalgia">
			<state id="Yes" />
			<state id="No" />
			<parents>den_outcome</parents>
			<probabilities>0.863354 0.136646 0.846939 0.153061</probabilities>
		</cpt>
	</nodes>
	<extensions>
		<genie version="1.0" app="GeNIe 2.4.4601.0 ACADEMIC" name="Dengue" faultnameformat="nodestate">
			<node id="den_outcome">
				<name>den_outcome</name>
				<interior color="e5f6f7" />
				<outline color="000000" width="2" />
				<font color="000000" name="Arial" size="14" />
				<position>526 348 709 396</position>
				<barchart active="true" width="235" height="99" />
			</node>
			<node id="incidence_nolag">
				<name>incidence_nolag</name>
				<interior color="e6ffe6" />
				<outline color="000000" width="2" />
				<font color="000000" name="Arial" size="14" />
				<position>202 65 311 110</position>
				<barchart active="true" width="273" height="78" />
			</node>
			<node id="occ2">
				<name>occ2</name>
				<interior color="e6ffe6" />
				<outline color="000000" width="2" />
				<font color="000000" name="Arial" size="14" />
				<position>500 94 543 120</position>
				<barchart active="true" width="200" height="130" />
			</node>
			<node id="age">
				<name>age</name>
				<interior color="e6ffe6" />
				<outline color="000000" width="2" />
				<font color="000000" name="Arial" size="14" />
				<position>748 84 788 109</position>
				<barchart active="true" width="221" height="104" />
			</node>
			<node id="UD2">
				<name>UD2</name>
				<interior color="e6ffe6" />
				<outline color="000000" width="2" />
				<font color="000000" name="Arial" size="14" />
				<position>974 114 1014 139</position>
				<barchart active="true" width="186" height="78" />
			</node>
			<node id="NS1">
				<name>NS1</name>
				<interior color="ffff99" />
				<outline color="000000" width="2" />
				<font color="000000" name="Arial" size="14" />
				<position>987 235 1028 260</position>
				<barchart active="true" width="186" height="78" />
			</node>
			<node id="wbc_d0">
				<name>wbc_d0</name>
				<interior color="ffdfef" />
				<outline color="000000" width="2" />
				<font color="000000" name="Arial" size="14" />
				<position>1051 516 1107 551</position>
				<barchart active="true" width="186" height="130" />
			</node>
			<node id="feverdays">
				<name>feverdays</name>
				<interior color="ffdfef" />
				<outline color="000000" width="2" />
				<font color="000000" name="Arial" size="14" />
				<position>757 584 821 624</position>
				<barchart active="true" width="186" height="104" />
			</node>
			<node id="plt">
				<name>plt</name>
				<interior color="ffdfef" />
				<outline color="000000" width="2" />
				<font color="000000" name="Arial" size="14" />
				<position>136 576 204 611</position>
				<barchart active="true" width="186" height="104" />
			</node>
			<node id="lymp_d0">
				<name>lymp_d0</name>
				<interior color="ffdfef" />
				<outline color="000000" width="2" />
				<font color="000000" name="Arial" size="14" />
				<position>441 757 497 792</position>
				<barchart active="true" width="186" height="78" />
			</node>
			<node id="hct_d0">
				<name>hct_d0</name>
				<interior color="ffdfef" />
				<outline color="000000" width="2" />
				<font color="000000" name="Arial" size="14" />
				<position>1062 360 1111 390</position>
				<barchart active="true" width="202" height="78" />
			</node>
			<node id="atypl_d0">
				<name>atypl_d0</name>
				<interior color="ffdfef" />
				<outline color="000000" width="2" />
				<font color="000000" name="Arial" size="14" />
				<position>676 766 732 801</position>
				<barchart active="true" width="186" height="104" />
			</node>
			<node id="AST_ALT">
				<name>AST_ALT</name>
				<interior color="ffdfef" />
				<outline color="000000" width="2" />
				<font color="000000" name="Arial" size="14" />
				<position>1067 666 1128 704</position>
				<barchart active="true" width="186" height="78" />
			</node>
			<node id="tourniquettest">
				<name>tourniquettest</name>
				<interior color="ffdfef" />
				<outline color="000000" width="2" />
				<font color="000000" name="Arial" size="14" />
				<position>176 709 251 755</position>
				<barchart active="true" width="186" height="78" />
			</node>
			<node id="nausea">
				<name>nausea</name>
				<interior color="ffdfbf" />
				<outline color="000000" width="2" />
				<font color="000000" name="Arial" size="14" />
				<position>188 171 240 203</position>
				<barchart active="true" width="186" height="78" />
			</node>
			<node id="bleeding">
				<name>bleeding</name>
				<interior color="ffdfbf" />
				<outline color="000000" width="2" />
				<font color="000000" name="Arial" size="14" />
				<position>125 276 181 311</position>
				<barchart active="true" width="186" height="78" />
			</node>
			<node id="petechiae">
				<name>petechiae</name>
				<interior color="ffdfbf" />
				<outline color="000000" width="2" />
				<font color="000000" name="Arial" size="14" />
				<position>71 380 132 418</position>
				<barchart active="true" width="186" height="78" />
			</node>
			<node id="myalgia">
				<name>myalgia</name>
				<interior color="ffdfbf" />
				<outline color="000000" width="2" />
				<font color="000000" name="Arial" size="14" />
				<position>79 472 131 504</position>
				<barchart active="true" width="186" height="78" />
			</node>
			<textbox>
				<caption>Dengue BN \nconverted by hand \nfrom [For.Eli_combind\n+incidentmonthly\n_noLag(2).dne]</caption>
				<font color="000000" name="Arial" size="22" bold="true" />
				<position>1165 41 1474 211</position>
			</textbox>
			<arcformat parent="incidence_nolag" child="den_outcome" width="1" color="000000" />
			<arcformat parent="occ2" child="den_outcome" width="1" color="000000" />
		</genie>
	</extensions>
</smile>
